34 128
34 0.031128412 -0.21495394 -0.047304247 0.038724232 -0.051453207 0.009407898 0.18860252 -0.020133488 0.01619199 0.04759801 -0.16387522 0.22299033 0.0016001158 -0.18921264 -0.040646456 -0.17501529 -0.14950275 -0.08721112 -0.094269566 0.08415663 0.18056154 0.010125382 0.15395367 0.017125903 -0.03216787 0.03730714 -0.045514565 -0.02216758 -0.10431849 0.07146734 -0.1027 0.08456514 -0.04867068 -0.022521412 -0.10299812 -0.07427319 0.24727544 0.036366314 -0.04591606 -0.1779326 -0.28397104 0.10830348 0.105969675 0.18513829 -0.008430913 0.13796182 0.080963016 -0.11064354 -0.09686276 -0.009822829 -0.07611736 0.17497614 0.047671463 -0.0062997206 -0.048081234 -0.07792423 -0.2058847 -0.03922149 -0.03683897 -0.08597403 0.17103307 -0.20808268 -0.033943597 0.13959336 0.08996965 -0.19736402 -0.03705916 0.02226429 -0.0568454 -0.17534424 0.025437413 0.036193006 0.089832425 -0.07430502 0.077027164 -0.05079143 0.1731983 0.074648 -0.08962769 0.10714106 -0.044333767 -0.21268305 -0.053184777 -0.23746409 -0.16088563 0.2811872 -0.05497843 0.033708073 -0.10071047 -0.049587395 0.1653862 0.076540954 0.16500124 0.04615901 -0.12440296 0.17608191 -0.07045431 -0.03353197 -0.0043744775 -0.07530056 -0.10513496 -0.03053276 -0.18923244 -0.1647918 -0.028846068 0.011791251 0.15861237 0.07515641 -0.15155244 -0.054634213 -0.039422408 -0.09881324 -0.054295637 -0.115498915 0.036625203 0.053836007 -0.15644951 0.28469336 -0.15795504 0.15268955 -0.15636708 -0.15475234 -0.016810454 -0.24400155 0.071234226 0.104350515 -0.023710972 0.10827791
33 0.040136147 -0.23114046 -0.055390473 0.04854474 -0.062952586 0.013852293 0.2062529 -0.024027584 0.020118752 0.051053356 -0.17116658 0.24229696 -0.003235666 -0.20490713 -0.043352384 -0.18295246 -0.17456086 -0.09005448 -0.11531622 0.09105592 0.19898854 0.004316188 0.16613267 0.018321618 -0.04002869 0.041654572 -0.054100268 -0.025530785 -0.11470858 0.07279494 -0.12097888 0.09210114 -0.04341462 -0.02448916 -0.12485929 -0.07920217 0.262747 0.036224183 -0.05456156 -0.20013994 -0.31080282 0.12437642 0.11205869 0.18716604 -0.00031801706 0.15765043 0.08711217 -0.1258812 -0.11665546 -0.016379943 -0.08093107 0.1984789 0.055993322 -0.029374361 -0.048495088 -0.073078774 -0.23045625 -0.047159642 -0.034518756 -0.083886355 0.1932981 -0.23542565 -0.035460398 0.1518127 0.10975511 -0.22654237 -0.03435936 0.02367032 -0.0720403 -0.18601888 0.046209365 0.031171544 0.108994216 -0.07851538 0.07153299 -0.054276407 0.1992088 0.074533135 -0.09690004 0.1255296 -0.03656279 -0.23589657 -0.06460166 -0.26597512 -0.1717817 0.31395215 -0.07314812 0.03652527 -0.112009004 -0.06203989 0.18772043 0.093955025 0.18031357 0.05809278 -0.12332101 0.19862275 -0.07973559 -0.037098885 -0.0008472794 -0.08605385 -0.11194872 -0.04390895 -0.20772539 -0.17722069 -0.021960951 0.0054609273 0.16989587 0.08389564 -0.15846083 -0.057456337 -0.049359754 -0.11101296 -0.06372707 -0.14565812 0.051486764 0.06539275 -0.17161943 0.30276793 -0.1761622 0.16497171 -0.17077932 -0.16476834 -0.023386396 -0.26581773 0.09440556 0.11654577 -0.03582642 0.10587904
1 0.0145119345 -0.2078892 -0.03253941 0.0013079471 -0.02997714 -0.030301167 0.12869743 0.022332272 0.038854066 0.037731275 -0.12574263 0.19264641 0.016891668 -0.17767528 0.004795865 -0.17670357 -0.116628 -0.09363685 -0.04351898 0.044829033 0.16715536 0.024607291 0.12169408 0.022001544 -0.018246936 0.0470795 -0.03516225 0.00049201195 -0.048569143 0.06910097 -0.0799048 0.070929006 -0.06596365 -5.7208217e-05 -0.07198017 -0.10217124 0.20555826 0.03243712 -0.03413633 -0.13349022 -0.21188529 0.04444737 0.09243548 0.1862465 -0.05057435 0.12886125 0.051154587 -0.074293055 -0.049942724 -0.00017423453 -0.11364565 0.12999079 0.0317883 0.057260275 -0.077088244 -0.07457963 -0.14006485 -0.0125376 -0.04953389 -0.08085548 0.15052643 -0.17868711 -0.024350889 0.12702553 0.023078207 -0.11880059 -0.034459155 0.03241238 -0.03768507 -0.17016268 -0.03486791 0.046249498 0.05464829 -0.07859263 0.11421644 -0.023855165 0.13566378 0.050845418 -0.07120668 0.022760175 -0.06065021 -0.16597043 -0.046300728 -0.17416106 -0.16244411 0.18621215 0.017370826 0.008628343 -0.046207584 -0.025793167 0.16204509 0.025909236 0.14227547 -0.0017667704 -0.12952301 0.11498634 -0.05776896 -0.09206408 0.011386514 -0.032538075 -0.10648692 -0.020202614 -0.16539384 -0.10867838 -0.02837253 0.020569982 0.14199084 0.07164444 -0.12675464 -0.07895406 -0.02845165 -0.05250895 -0.018049818 -0.051389758 -0.027279995 0.029051177 -0.12482672 0.22549886 -0.13413793 0.070606194 -0.12121863 -0.13157235 0.016860481 -0.21717295 0.009772861 0.04972727 -0.004701367 0.11572047
2 0.027673801 -0.21831658 -0.041395642 0.009016296 -0.038946625 -0.023548374 0.14712943 0.01769725 0.02864264 0.04153072 -0.13801019 0.21660468 0.016764719 -0.19483706 -0.00060986687 -0.19161482 -0.14036724 -0.09136168 -0.059862245 0.054673284 0.18163338 0.025681555 0.13664365 0.019044189 -0.02830073 0.049926776 -0.04132578 -0.0032574907 -0.058030225 0.07605664 -0.08415987 0.07294379 -0.073264495 0.0014345052 -0.082593784 -0.09527296 0.2317415 0.03300682 -0.03749932 -0.14536817 -0.2297239 0.06519249 0.101706386 0.19488409 -0.04617996 0.14053687 0.05820332 -0.090306416 -0.0671694 -0.009509139 -0.110623285 0.1357119 0.042545453 0.04929384 -0.07980861 -0.08002508 -0.1575756 -0.015851378 -0.051512823 -0.085681014 0.16176175 -0.19180575 -0.025531452 0.13081083 0.039808188 -0.13610761 -0.039637245 0.025947522 -0.044298533 -0.18327802 -0.02614691 0.048885122 0.06913316 -0.08544314 0.11713271 -0.023670929 0.15647708 0.05708056 -0.08013826 0.043556325 -0.060382318 -0.18744121 -0.060077637 -0.19621424 -0.16796109 0.2248272 0.0073442915 0.012043347 -0.05586019 -0.036613416 0.17534532 0.040068485 0.15277377 0.0007852174 -0.14322557 0.13450806 -0.06844842 -0.0895547 0.0020425098 -0.03672856 -0.10710128 -0.032482732 -0.17812407 -0.12888479 -0.035226606 0.009310034 0.15522954 0.07982241 -0.14343448 -0.08311094 -0.037459105 -0.061218962 -0.025724802 -0.074041896 -0.019341677 0.037812945 -0.14231531 0.25345013 -0.15066613 0.0905131 -0.13716684 -0.14982264 0.015571888 -0.24428128 0.026538609 0.06699307 -0.002954109 0.120545074
3 0.018134676 -0.2040419 -0.035460982 0.0142988935 -0.03513789 -0.014927457 0.15203308 0.0042995787 0.022184202 0.038879104 -0.1314163 0.19757566 0.0040786425 -0.18357678 -0.013253341 -0.17632583 -0.123195544 -0.09474473 -0.06541132 0.057134572 0.16622429 0.024441823 0.12909617 0.026157854 -0.022123218 0.041401234 -0.044277176 -0.004441763 -0.061497837 0.07793352 -0.08870663 0.07007934 -0.061863504 -0.0033918202 -0.08500745 -0.09867885 0.22476517 0.038743347 -0.038647022 -0.14161184 -0.23143113 0.059702016 0.091420546 0.18592525 -0.03745092 0.13495505 0.0637908 -0.08947499 -0.078322366 -0.003014046 -0.09087084 0.14031012 0.031267546 0.032504372 -0.06825513 -0.07879644 -0.16393302 -0.021906236 -0.047259603 -0.077603295 0.14886971 -0.18402341 -0.029113004 0.13661125 0.048920117 -0.15074123 -0.029997302 0.029794944 -0.04137109 -0.17425442 -0.010805984 0.04600437 0.06258564 -0.07616341 0.10382434 -0.035296094 0.1492413 0.055704124 -0.07552725 0.052341327 -0.05350697 -0.17574514 -0.04998077 -0.19551224 -0.15919769 0.2244343 -0.0058875494 0.018098606 -0.06940807 -0.038613617 0.15878434 0.04503307 0.14822671 0.017676076 -0.12938789 0.137715 -0.06813033 -0.064010374 0.010872379 -0.05038368 -0.109811604 -0.025650349 -0.17879528 -0.12650977 -0.022225996 0.022213714 0.14697075 0.06866015 -0.13041744 -0.07251788 -0.02718469 -0.06922866 -0.027718632 -0.07516019 -0.0019649232 0.040977977 -0.13893825 0.24561962 -0.1309654 0.095510915 -0.13500726 -0.14760399 0.0023507471 -0.22730508 0.030480245 0.071695216 -0.012674744 0.11188515
4 0.021082025 -0.20249532 -0.03915535 0.011024764 -0.030569892 -0.026493566 0.13497487 0.018703412 0.030938534 0.03695504 -0.12524095 0.20382968 0.016838906 -0.18232767 -0.0029089 -0.17962666 -0.12657149 -0.0933582 -0.05541024 0.0569462 0.17311125 0.024779562 0.12555239 0.018398507 -0.02152688 0.048458174 -0.04305494 -0.0018813352 -0.05348079 0.07135121 -0.08415846 0.067318484 -0.06615466 -0.0027241919 -0.07667314 -0.09779311 0.22454058 0.03857817 -0.036635183 -0.13258098 -0.21883613 0.052795216 0.09596711 0.19106653 -0.041637294 0.13055782 0.056411102 -0.08622248 -0.06889906 -0.010256565 -0.099995926 0.1284015 0.03772561 0.045146912 -0.07319604 -0.076137416 -0.14920065 -0.017246652 -0.046082735 -0.08749011 0.15773907 -0.18576351 -0.022383424 0.13083912 0.04103526 -0.12803902 -0.040942412 0.028598115 -0.036419638 -0.17351398 -0.025281679 0.05098458 0.06377905 -0.08670313 0.116428696 -0.027380316 0.14734769 0.05809751 -0.079485506 0.045249693 -0.055570845 -0.17852353 -0.0516325 -0.18457428 -0.16104634 0.20956609 0.013973729 0.0101958765 -0.05354989 -0.030320438 0.15898462 0.032432504 0.14222182 0.0043394333 -0.13350753 0.12736003 -0.06711275 -0.082089745 0.007147559 -0.039721116 -0.1095082 -0.025352519 -0.16720377 -0.113690294 -0.034795836 0.018433006 0.14213888 0.07162855 -0.13611414 -0.07944173 -0.026930261 -0.06244527 -0.023602469 -0.064940184 -0.015029978 0.038393416 -0.13638094 0.24099812 -0.13622558 0.0852006 -0.12618612 -0.1414232 0.008468985 -0.23246151 0.018178271 0.06279567 -0.004565978 0.11804894
32 0.021814508 -0.20247716 -0.045396026 0.020701673 -0.04036961 -0.0040478245 0.15587705 -0.0042715273 0.022646824 0.040484685 -0.13631059 0.20043959 0.0044155316 -0.17016098 -0.01930264 -0.16038017 -0.12591064 -0.08911138 -0.07507326 0.065212905 0.16545685 0.019782742 0.12725799 0.020476714 -0.029073134 0.0363776 -0.047791824 -0.008459812 -0.07520503 0.06591007 -0.08880341 0.0735671 -0.045341376 -0.011252533 -0.09076431 -0.08558572 0.21926907 0.038495783 -0.04288951 -0.15360087 -0.24270052 0.07576142 0.09107355 0.17192802 -0.030685293 0.13006163 0.06713028 -0.08551089 -0.07580525 -0.010894418 -0.08653554 0.15077782 0.03474234 0.018031942 -0.05791686 -0.07588107 -0.16869976 -0.029185014 -0.04108517 -0.07923796 0.15376991 -0.18409577 -0.0287019 0.13418002 0.052396808 -0.15623301 -0.036203783 0.030887987 -0.04779763 -0.16987456 -0.003596159 0.044322554 0.07114767 -0.07577134 0.08585039 -0.035472058 0.14718375 0.060731124 -0.08008728 0.06564595 -0.049348686 -0.18062201 -0.041793264 -0.19382074 -0.15453643 0.23086469 -0.020208566 0.022339769 -0.07235964 -0.043487985 0.15625283 0.05545833 0.15283991 0.022916017 -0.116075225 0.14057237 -0.059845984 -0.057138048 0.0012811333 -0.06003882 -0.09917171 -0.028280681 -0.17502365 -0.13401528 -0.020405073 0.021507809 0.14836152 0.06749592 -0.13390218 -0.059300635 -0.032164503 -0.07844492 -0.033334907 -0.08244074 0.014380761 0.04500054 -0.13618681 0.24539952 -0.13180143 0.10395444 -0.13435888 -0.14318496 -0.0033330154 -0.21914269 0.045514908 0.07099721 -0.023372488 0.1073355
9 0.029294042 -0.22167636 -0.052580595 0.026413223 -0.05117979 0.0007153257 0.17967474 -0.0052837646 0.028942818 0.046761975 -0.15848735 0.23091407 0.004790589 -0.20083506 -0.028508943 -0.18521918 -0.155044 -0.09163603 -0.09308931 0.07498561 0.18280953 0.021162251 0.15568602 0.017614394 -0.03211651 0.04826776 -0.049912833 -0.019936383 -0.09472387 0.07487527 -0.103675015 0.08763064 -0.05823058 -0.021885643 -0.09470859 -0.091587715 0.2518563 0.03614498 -0.05184168 -0.17192182 -0.28269622 0.08976076 0.10764719 0.19904259 -0.023030836 0.1430751 0.07847843 -0.10715452 -0.095371574 -0.014963639 -0.09239727 0.17149058 0.04058013 0.009843157 -0.051852997 -0.08135649 -0.2025208 -0.034238357 -0.042062048 -0.0919025 0.17600486 -0.21243027 -0.03342204 0.14503391 0.080775015 -0.1865021 -0.034250792 0.029457668 -0.058055427 -0.18494548 0.014026662 0.046411633 0.09243422 -0.08519336 0.09732627 -0.04814779 0.17315185 0.07188143 -0.09524388 0.09158766 -0.043957938 -0.2105141 -0.06046467 -0.23612233 -0.17480105 0.26881287 -0.035947762 0.028539268 -0.09190887 -0.04454807 0.17799154 0.06499032 0.17206378 0.04107315 -0.13429989 0.16321078 -0.06660144 -0.053771436 0.000847831 -0.06431628 -0.11408171 -0.037933048 -0.19617367 -0.15451217 -0.027277196 0.014415917 0.15778454 0.081737585 -0.1581126 -0.06987193 -0.03511179 -0.089907326 -0.043431215 -0.1087805 0.022745773 0.049645383 -0.16310255 0.28764033 -0.16074207 0.13991791 -0.15706353 -0.15908316 -0.010627264 -0.25138184 0.057817277 0.09792674 -0.02023895 0.11927566
14 0.019820804 -0.23283885 -0.037543613 0.004843075 -0.03614098 -0.020894812 0.1512941 0.01461265 0.03179135 0.047573306 -0.15151685 0.22541483 0.012939978 -0.2025859 -0.0012646904 -0.19463168 -0.13822217 -0.10003315 -0.062211353 0.054278854 0.19058856 0.034172483 0.14188093 0.023814743 -0.02691357 0.05598179 -0.040372953 0.0005099466 -0.07033678 0.08323033 -0.08817266 0.08258325 -0.075454 -0.0010749811 -0.07626941 -0.108483426 0.24037565 0.039282 -0.044545434 -0.1493122 -0.25322887 0.0636895 0.10670498 0.21234865 -0.04790604 0.14710718 0.06688994 -0.088125795 -0.07197872 -0.0026894035 -0.11754601 0.14775224 0.036440723 0.05341047 -0.07628545 -0.08969105 -0.17704244 -0.01581157 -0.05292194 -0.09763248 0.16969447 -0.20439841 -0.023290314 0.1394822 0.04037678 -0.144411 -0.0351831 0.029652607 -0.040093694 -0.19263668 -0.030993342 0.060530666 0.06328102 -0.085006595 0.12725978 -0.027849436 0.16099621 0.06329667 -0.087024644 0.042683333 -0.06232088 -0.19115628 -0.052630085 -0.20236367 -0.18601173 0.23513043 0.006662034 0.013862511 -0.06263146 -0.03264081 0.17924626 0.036982372 0.16166136 0.0046604676 -0.14989331 0.1445431 -0.069579385 -0.08295764 0.009765232 -0.043222252 -0.12161035 -0.02954016 -0.1919227 -0.12847088 -0.038369417 0.021052176 0.16244102 0.082230486 -0.15387776 -0.08934941 -0.036307726 -0.06971391 -0.030871404 -0.07103039 -0.011280793 0.037691787 -0.15548673 0.26547712 -0.15540884 0.102901675 -0.14236507 -0.15857911 0.015121423 -0.2525084 0.024836442 0.06550973 -0.009068673 0.13009025
28 0.024125505 -0.21991229 -0.04234628 0.025610933 -0.048389103 0.00269625 0.17367461 -0.010777898 0.021542229 0.044577282 -0.14947829 0.22173345 0.004029508 -0.18470101 -0.028371466 -0.17817199 -0.14559934 -0.0976782 -0.08042378 0.0751099 0.17763071 0.015854117 0.14332125 0.022741923 -0.031866364 0.04415772 -0.05279467 -0.014253736 -0.08512661 0.07237084 -0.1003683 0.08494882 -0.048985947 -0.014445796 -0.09844155 -0.093089834 0.2411852 0.039345223 -0.044466525 -0.17004868 -0.26934683 0.08489647 0.101938464 0.1891346 -0.026358888 0.14133793 0.06849104 -0.09937786 -0.09113485 -0.011996293 -0.094689675 0.1676269 0.04318531 0.006575487 -0.052118156 -0.07880623 -0.19226897 -0.037955523 -0.04613218 -0.08518542 0.16896257 -0.20651302 -0.025493152 0.14374952 0.06974191 -0.179268 -0.03782977 0.033836883 -0.059194513 -0.18409468 0.0054699867 0.045472097 0.07764334 -0.08364282 0.08976894 -0.04325254 0.16444203 0.069883786 -0.09204706 0.08446544 -0.049425717 -0.20422669 -0.04838511 -0.21950945 -0.1681155 0.260606 -0.031232106 0.028705118 -0.0853075 -0.0457528 0.17104296 0.06316377 0.1625477 0.029520432 -0.12385913 0.158412 -0.066933006 -0.051959258 0.0029167247 -0.06865517 -0.11162674 -0.025876282 -0.19253342 -0.1507523 -0.02208628 0.021153664 0.16133662 0.08004201 -0.14292082 -0.06781686 -0.03555692 -0.085814975 -0.046731215 -0.101617076 0.019550545 0.046840683 -0.15394709 0.26839384 -0.15119754 0.12275708 -0.14797679 -0.15372032 -0.0076937024 -0.24071534 0.05115958 0.08474416 -0.022047028 0.11435753
7 0.021025853 -0.19557172 -0.040847316 0.0017786985 -0.034881495 -0.021711672 0.12118341 0.022339977 0.045726985 0.034399133 -0.120599315 0.18427378 0.015508808 -0.16929208 0.014506878 -0.16359283 -0.113161616 -0.08939276 -0.048600428 0.03910891 0.15877439 0.020387994 0.1155676 0.022943648 -0.010473508 0.03765283 -0.038513217 -0.008623761 -0.05408109 0.061523385 -0.066581324 0.070578806 -0.064888254 -0.010987693 -0.063107826 -0.092743054 0.19020918 0.029539943 -0.040210024 -0.12550211 -0.20332547 0.048245776 0.08989977 0.17622492 -0.050004594 0.12553473 0.05612847 -0.066783614 -0.040212005 -0.00020443875 -0.11072233 0.12717383 0.029478608 0.05597573 -0.06822692 -0.071967006 -0.1316273 -0.018161908 -0.0359175 -0.0769511 0.14460854 -0.16309959 -0.014849384 0.121879004 0.019525228 -0.107468575 -0.03266323 0.03623932 -0.028962016 -0.16541253 -0.03588858 0.051604968 0.042475753 -0.072903015 0.11405301 -0.019922903 0.12304704 0.053303756 -0.07112659 0.017152295 -0.055904604 -0.14354354 -0.043287043 -0.15548967 -0.15726762 0.16518173 0.017305607 0.010875865 -0.04806424 -0.016468542 0.1584462 0.021299418 0.13974215 -0.0013710853 -0.123722635 0.110301346 -0.043256197 -0.0928207 0.0051917024 -0.026688425 -0.09733097 -0.017752852 -0.16222312 -0.10310301 -0.03459565 0.010834512 0.124837935 0.06556916 -0.113526285 -0.076687485 -0.023235748 -0.038860075 -0.022261225 -0.05411268 -0.028055971 0.027944395 -0.120028645 0.20855927 -0.13007331 0.07473683 -0.113793276 -0.11724739 0.028760793 -0.20320532 0.0003219917 0.04186202 0.0020834159 0.11631922
24 0.03738527 -0.2107423 -0.048791774 0.040793657 -0.055510715 0.013046076 0.18941112 -0.022091947 0.0199347 0.04843253 -0.15693972 0.22378294 0.0018383579 -0.19185281 -0.042146347 -0.1737358 -0.15676336 -0.09111714 -0.10050617 0.0823271 0.18324573 0.010715737 0.15206821 0.02655796 -0.0327355 0.041154135 -0.053317778 -0.026152657 -0.10795369 0.07168857 -0.11251852 0.08499673 -0.04694521 -0.029575901 -0.109058015 -0.079487875 0.2497541 0.032366388 -0.04987398 -0.18930297 -0.28685266 0.111439094 0.10249592 0.18291625 -0.0054223323 0.14632778 0.07795603 -0.10593 -0.101785265 -0.015302817 -0.070118845 0.18212917 0.040917426 -0.012160962 -0.039720345 -0.07007835 -0.20526639 -0.041760184 -0.037480384 -0.08485651 0.17453395 -0.21381916 -0.030366767 0.14219229 0.08996817 -0.20450786 -0.036687966 0.029442264 -0.06675543 -0.1748446 0.034633167 0.037001472 0.09318196 -0.07698343 0.07460629 -0.05513381 0.17484374 0.06733755 -0.093585156 0.11393427 -0.0366498 -0.21033335 -0.053269822 -0.23607028 -0.16514021 0.2802673 -0.06333209 0.03794645 -0.09980466 -0.053911727 0.16762157 0.08167229 0.17065638 0.05154154 -0.11811458 0.18171875 -0.06600153 -0.03328904 -0.0023576247 -0.080339745 -0.10778166 -0.030553497 -0.18680397 -0.16277021 -0.024115784 0.015719203 0.15864833 0.07796984 -0.14878039 -0.050002374 -0.037188295 -0.104983695 -0.05632854 -0.1233743 0.038518105 0.05613436 -0.16020316 0.28225842 -0.15386449 0.15357903 -0.15739761 -0.15775807 -0.02262345 -0.25033143 0.08264069 0.10894847 -0.029672705 0.10860198
30 0.045747984 -0.23926242 -0.06334942 0.05188967 -0.07352353 0.02054863 0.21734427 -0.03159982 0.020871487 0.05433679 -0.18479718 0.24872436 -0.004857965 -0.20783551 -0.051079582 -0.19094062 -0.17634392 -0.096581414 -0.12080845 0.099944055 0.20221211 0.00022401444 0.17321365 0.016825797 -0.03513425 0.03902731 -0.048525088 -0.029413367 -0.12689888 0.07363705 -0.12448064 0.08882424 -0.04071741 -0.034545124 -0.12775938 -0.0734759 0.27032995 0.040792443 -0.05294633 -0.21563691 -0.3196678 0.12769161 0.11563359 0.19908734 0.0025463514 0.1600443 0.09265325 -0.12878557 -0.11509204 -0.013599118 -0.08381602 0.20523033 0.058000997 -0.034419127 -0.041133575 -0.07558738 -0.2397068 -0.0496505 -0.034698803 -0.08982761 0.19768834 -0.24180976 -0.028997524 0.15525892 0.113688715 -0.23216118 -0.042002644 0.025924552 -0.0735214 -0.19698866 0.046043042 0.032496262 0.11108996 -0.082271814 0.07640976 -0.06230246 0.20237687 0.08340036 -0.10148749 0.13251294 -0.047263194 -0.24255212 -0.06686222 -0.2710901 -0.17599277 0.3221064 -0.07875778 0.040749315 -0.11959234 -0.062489964 0.19340077 0.089339025 0.18773815 0.06572306 -0.124595016 0.20170279 -0.079298854 -0.03141545 -0.004242473 -0.08945037 -0.10515666 -0.039974052 -0.21433562 -0.19173482 -0.027485149 0.007056451 0.17453922 0.08712553 -0.1687763 -0.05607187 -0.053331587 -0.12029358 -0.06971628 -0.14843847 0.056211073 0.063838325 -0.17797638 0.3140203 -0.1787818 0.17765361 -0.18039538 -0.1646915 -0.026982429 -0.27019086 0.09801489 0.12335511 -0.030550493 0.11338239
8 0.018749265 -0.22251432 -0.033845205 0.0012020433 -0.03342408 -0.03230447 0.1345171 0.024921179 0.036294386 0.044154655 -0.13138604 0.20423731 0.015418273 -0.18730898 0.015199078 -0.19103423 -0.1212843 -0.09695437 -0.039672155 0.049831588 0.17588578 0.029118866 0.12535045 0.016652787 -0.018741585 0.056638822 -0.035952825 0.004303105 -0.048606567 0.07999053 -0.079304695 0.07122238 -0.07188053 0.007391359 -0.07032819 -0.108647525 0.22619368 0.03659476 -0.03290391 -0.12659092 -0.21533675 0.044499636 0.089690134 0.20130916 -0.05559431 0.14340793 0.05078819 -0.07792427 -0.054880306 -0.0005401636 -0.12466447 0.12435901 0.040742945 0.067318596 -0.08689588 -0.081662685 -0.14712264 -0.015935468 -0.055224333 -0.0925055 0.15361476 -0.18694197 -0.02138889 0.13514657 0.023491232 -0.12238328 -0.034776874 0.027856117 -0.030839527 -0.18356745 -0.0504604 0.05364516 0.04677457 -0.0851666 0.12975153 -0.016921062 0.13544846 0.054589268 -0.07674517 0.019732758 -0.06496688 -0.17409617 -0.05215536 -0.17533873 -0.17609662 0.20053793 0.032829758 0.007555772 -0.046100393 -0.02859561 0.17394795 0.017178819 0.14734091 -0.009540457 -0.1415979 0.11374314 -0.06441734 -0.10339165 0.006176195 -0.035188887 -0.10758702 -0.028049087 -0.18206735 -0.11049875 -0.030983984 0.01548874 0.15075864 0.06731506 -0.13580135 -0.092035174 -0.033577837 -0.048377417 -0.014279381 -0.05029593 -0.038902987 0.03363464 -0.13604295 0.2331484 -0.13926418 0.069988325 -0.1284899 -0.14721222 0.03002014 -0.22948113 0.008301649 0.04424356 0.0012073797 0.12026498
6 0.018178686 -0.20222682 -0.037273724 0.0059542 -0.03121258 -0.025883105 0.12483591 0.024121983 0.042666666 0.035973407 -0.11739759 0.18588728 0.013793936 -0.17034872 0.014618406 -0.16854084 -0.11568166 -0.095356464 -0.04281139 0.039079703 0.1597974 0.020415468 0.11536475 0.016999701 -0.010676776 0.03808488 -0.034103014 -0.010227332 -0.049345084 0.070050456 -0.069668524 0.064339206 -0.060998417 -0.0061603817 -0.062165964 -0.09672134 0.19721161 0.039090596 -0.04304671 -0.12940794 -0.20277327 0.046691675 0.092387006 0.17439298 -0.058064107 0.12841026 0.05643096 -0.07212655 -0.03937171 0.0027206796 -0.113285154 0.12874413 0.027274089 0.054098036 -0.065826334 -0.07838344 -0.1323465 -0.018000226 -0.038407743 -0.0857202 0.14956611 -0.16432467 -0.01604816 0.12367431 0.018852297 -0.11341673 -0.037634227 0.032738294 -0.03305755 -0.16972122 -0.03548969 0.04873536 0.042741116 -0.07265157 0.11921677 -0.021914719 0.12596118 0.05598456 -0.07301884 0.018086553 -0.06421748 -0.14674693 -0.040963173 -0.15943584 -0.15463315 0.16575225 0.026711717 0.0074464735 -0.046640262 -0.020279825 0.16183135 0.021638831 0.14187513 0.0007031094 -0.12514631 0.10859805 -0.047640428 -0.0976833 0.0133256465 -0.029029936 -0.09565786 -0.021273792 -0.162897 -0.10272899 -0.03560587 0.01821063 0.13165824 0.071280695 -0.116118886 -0.08129892 -0.02314257 -0.0412636 -0.01893812 -0.04762768 -0.027998202 0.032511633 -0.11785625 0.2103259 -0.12665497 0.06624515 -0.11275138 -0.12518206 0.029291894 -0.2124841 -0.0033238756 0.04549451 0.002245768 0.11082729
31 0.0407005 -0.23625371 -0.051443502 0.039856534 -0.061848562 0.00393339 0.20005985 -0.020732025 0.01896505 0.052630227 -0.17016192 0.2505873 0.005290358 -0.21319316 -0.036337957 -0.19893269 -0.17556351 -0.096938275 -0.10137356 0.08603522 0.20265013 0.009379818 0.16077857 0.025029091 -0.03423577 0.047824427 -0.04868284 -0.016972695 -0.107782006 0.07616379 -0.12026639 0.09323534 -0.05716177 -0.020337552 -0.11301847 -0.08375598 0.26711267 0.037278336 -0.04673454 -0.20192543 -0.30331725 0.11420305 0.113789186 0.20068067 -0.012422801 0.15916444 0.082057506 -0.122591786 -0.10796023 -0.011426714 -0.095321886 0.19217943 0.052207083 -0.008542331 -0.054126907 -0.08251944 -0.22002889 -0.044093404 -0.045777686 -0.096837655 0.19561048 -0.23411953 -0.035698727 0.14953206 0.091201566 -0.21270925 -0.04422723 0.026377657 -0.06975884 -0.19700252 0.025407165 0.036939193 0.10182856 -0.0863412 0.09252174 -0.05263052 0.20011698 0.074224666 -0.095489345 0.1116322 -0.046614323 -0.23415901 -0.065765694 -0.2594595 -0.17948477 0.30238372 -0.05594723 0.030472118 -0.10325848 -0.0601067 0.18621689 0.08361202 0.18544406 0.045914717 -0.14120547 0.1886749 -0.08055425 -0.05101707 -0.0027059934 -0.0746898 -0.118150085 -0.039224546 -0.20787288 -0.17913851 -0.030746408 0.011520811 0.17411134 0.08788913 -0.16211942 -0.06542988 -0.05003483 -0.10871895 -0.059979092 -0.13157286 0.035531975 0.06338518 -0.1756078 0.3109351 -0.17819098 0.1582301 -0.17372377 -0.17050676 -0.018832395 -0.27693462 0.07753567 0.11180744 -0.030414913 0.11831658
26 0.018981824 -0.12368819 -0.026187982 0.011677892 -0.020660643 -0.006309676 0.10340796 -0.005351473 0.008805835 0.022258092 -0.086497515 0.12247599 0.007775962 -0.11451211 -0.016586013 -0.100878716 -0.076354794 -0.058927014 -0.048759688 0.0452733 0.11066305 0.014444098 0.08789913 0.01954193 -0.020359375 0.019428743 -0.039440196 -0.011542286 -0.051000334 0.051333774 -0.053591214 0.048306346 -0.02946108 -0.013848715 -0.064878985 -0.06292966 0.145678 0.021572698 -0.029861294 -0.09958723 -0.15517241 0.042111658 0.05301182 0.109401196 -0.022188071 0.09086332 0.03598414 -0.055620868 -0.053078424 -0.0009259842 -0.046353415 0.10015958 0.01763824 0.007914395 -0.03632873 -0.04918681 -0.10339751 -0.016501168 -0.032595064 -0.049153123 0.09862723 -0.12080047 -0.019182576 0.09207334 0.035307664 -0.10148576 -0.019834522 0.01446377 -0.030070342 -0.10654201 5.9037426e-05 0.028631775 0.041170895 -0.04990242 0.0595782 -0.030129407 0.086277544 0.03766245 -0.05348969 0.040772654 -0.035738934 -0.11110546 -0.02523642 -0.12162894 -0.09584388 0.15106134 -0.01868849 0.015390543 -0.048178174 -0.028930293 0.09895016 0.035407923 0.10299593 0.023447 -0.07109646 0.088692226 -0.040798664 -0.03280607 0.008267539 -0.04262201 -0.06555055 -0.015275402 -0.10955062 -0.08177634 -0.009849847 0.01748428 0.09956712 0.044898562 -0.078400336 -0.03148505 -0.022441225 -0.05373526 -0.01935538 -0.049666725 0.009424549 0.027349912 -0.0856616 0.15328807 -0.07615906 0.059710458 -0.086584404 -0.09723009 -0.007962259 -0.14796542 0.02956709 0.05399129 -0.017366648 0.06259701
11 0.014725308 -0.21214473 -0.039442934 0.003476534 -0.030330418 -0.032146677 0.12415539 0.028780833 0.047859654 0.033770267 -0.12555328 0.19858623 0.014332626 -0.17396979 0.017338848 -0.1806513 -0.12414083 -0.0961036 -0.049093094 0.039818805 0.17331454 0.024428006 0.12655754 0.021754062 -0.017032266 0.042130686 -0.040456884 -0.0052030124 -0.054848466 0.06563532 -0.07077884 0.069274664 -0.06522041 -0.010664336 -0.061581187 -0.09701131 0.21356548 0.040424097 -0.041156378 -0.121961415 -0.20555162 0.049848128 0.096202284 0.18676917 -0.057488676 0.13494395 0.061817907 -0.066997804 -0.050665185 -0.0007476305 -0.11298865 0.12962449 0.032858565 0.055629347 -0.0716866 -0.08444686 -0.13870251 -0.010835867 -0.047216915 -0.08650162 0.151369 -0.17765269 -0.011770089 0.13263376 0.01817404 -0.111816324 -0.040978342 0.031349853 -0.024809645 -0.17725226 -0.039589215 0.053110287 0.046012152 -0.08516191 0.12868717 -0.019317623 0.13257922 0.048843823 -0.07930082 0.017256908 -0.059073128 -0.15263763 -0.047229864 -0.1713723 -0.17283757 0.18031847 0.031764366 0.010235249 -0.04452106 -0.019704925 0.16285127 0.01704835 0.14628713 0.0022931802 -0.13145524 0.10880143 -0.048508607 -0.09685046 0.008306287 -0.022415781 -0.09828637 -0.017785918 -0.17123829 -0.10580165 -0.03726146 0.013790935 0.14019997 0.06298473 -0.1251917 -0.08682615 -0.027573314 -0.041084226 -0.02321768 -0.055198 -0.029670613 0.027636185 -0.1315666 0.22987062 -0.13370389 0.068737 -0.117143296 -0.13335384 0.032866232 -0.2244178 -3.95643e-05 0.042113554 -0.0054541193 0.12246958
5 0.014814078 -0.1991787 -0.040722486 -0.0005778389 -0.02332531 -0.033244044 0.1190908 0.021720683 0.04734829 0.03135631 -0.10810903 0.18543588 0.013062469 -0.16295634 0.016959082 -0.17016026 -0.11240632 -0.09535879 -0.041894708 0.04156323 0.15948886 0.029201366 0.10861443 0.02405024 -0.011741611 0.037895456 -0.03670111 -0.0082341945 -0.04343775 0.06690504 -0.0682702 0.06293039 -0.067090005 -0.0012260525 -0.055116247 -0.10239918 0.19510078 0.039513614 -0.03885432 -0.11294424 -0.18477137 0.03675023 0.082252175 0.1743675 -0.06069924 0.1234852 0.05160036 -0.06505375 -0.042986136 -0.0032393269 -0.11115017 0.12054997 0.03245366 0.053958952 -0.06689863 -0.07997182 -0.122150406 -0.013116531 -0.037969727 -0.086822525 0.13751522 -0.16332972 -0.012854339 0.124078326 0.011219889 -0.10082002 -0.03052669 0.029594513 -0.022282833 -0.16482349 -0.045088816 0.051801022 0.038704704 -0.081926174 0.120706685 -0.0220074 0.11532207 0.045310922 -0.073815405 0.0067014634 -0.06313138 -0.14199805 -0.04281356 -0.15393655 -0.15958858 0.15685038 0.03617225 0.010977488 -0.03832502 -0.017603835 0.1558341 0.013219822 0.13548613 -0.0039113536 -0.12845518 0.10081969 -0.051625248 -0.096333094 0.016451398 -0.018668726 -0.10214727 -0.017787755 -0.15994023 -0.09987172 -0.03695523 0.01440304 0.13021488 0.06229987 -0.11965528 -0.08296134 -0.025455836 -0.038556408 -0.012134383 -0.046116307 -0.036030542 0.029578729 -0.112587355 0.20774357 -0.11573851 0.059686467 -0.10772205 -0.11982777 0.030014904 -0.20768806 -0.010441765 0.042450998 -0.002742962 0.118505426
20 0.031812392 -0.23601735 -0.0497367 0.024564067 -0.05403704 -0.014169149 0.1787853 0.0031875244 0.02768715 0.046678606 -0.16203429 0.231919 0.013809913 -0.20637143 -0.017290758 -0.19669048 -0.16092168 -0.09569167 -0.08332534 0.06806143 0.19918661 0.015940396 0.15524621 0.020139597 -0.028109044 0.054620933 -0.038971208 -0.014158837 -0.084564306 0.07280595 -0.10711949 0.08129764 -0.061580986 -0.01368301 -0.09370028 -0.09286856 0.25754276 0.034751628 -0.049239006 -0.17745288 -0.2758149 0.08430517 0.10526028 0.20556292 -0.026804185 0.15417758 0.077932976 -0.10430582 -0.08414746 -0.013747202 -0.11159213 0.16665313 0.050825637 0.016636657 -0.06732525 -0.08095834 -0.19400866 -0.034985825 -0.049475275 -0.09242597 0.18761341 -0.21593356 -0.02548751 0.14839417 0.066861376 -0.17640524 -0.04030503 0.03039136 -0.055007447 -0.1892008 -0.0054568285 0.04814367 0.081616655 -0.08807957 0.10970362 -0.035502944 0.17896028 0.06769971 -0.089840144 0.0781571 -0.055340692 -0.21528749 -0.06130635 -0.23459856 -0.17892376 0.26720625 -0.023279762 0.02343601 -0.084107175 -0.041586995 0.19131127 0.05621245 0.17169087 0.02424012 -0.13977623 0.16135363 -0.07045194 -0.073302835 -0.0011660449 -0.0534554 -0.11562761 -0.039413527 -0.20273973 -0.14625956 -0.034545347 0.014684825 0.16327474 0.08219327 -0.1533338 -0.07475052 -0.043871228 -0.081699006 -0.04168935 -0.09791585 0.004250764 0.04703089 -0.15768155 0.28593102 -0.16442826 0.12677026 -0.1560077 -0.1557413 0.0022660217 -0.2640931 0.052754078 0.087967046 -0.018907715 0.12379362
25 0.010290373 -0.13161582 -0.029362138 0.011157876 -0.029011182 -0.0071229837 0.0941204 -0.005740474 0.02337233 0.024565684 -0.08442272 0.12454627 0.004011941 -0.105458364 -0.01126273 -0.110235326 -0.07753672 -0.06308292 -0.03941994 0.045783192 0.11016147 0.008996674 0.084714554 0.018333869 -0.014469752 0.018418126 -0.029011453 -0.010037614 -0.049950052 0.04815886 -0.05284142 0.04804186 -0.029992616 -0.012036886 -0.062542945 -0.056478266 0.1352444 0.02830853 -0.02966113 -0.10025722 -0.15365164 0.047673248 0.05485718 0.10637486 -0.019258283 0.090709694 0.040053353 -0.04963312 -0.042570993 -0.003934975 -0.064202234 0.10036377 0.025073761 0.014768901 -0.04124778 -0.04758777 -0.09857506 -0.023135737 -0.028160848 -0.045958832 0.096009485 -0.11663356 -0.013184048 0.08377584 0.025394376 -0.10039395 -0.024498558 0.022245781 -0.03513609 -0.10734668 -0.0054317247 0.024465336 0.042225458 -0.04453259 0.057858765 -0.02748776 0.08522371 0.041045252 -0.048258584 0.035558 -0.033693373 -0.11492579 -0.02680188 -0.124632 -0.10036258 0.13933396 -0.009822639 0.008527723 -0.04854225 -0.030528147 0.09775873 0.028986383 0.10103998 0.01025344 -0.074034184 0.09014588 -0.038251992 -0.039967757 0.0060468432 -0.03461853 -0.07105086 -0.010588561 -0.11541554 -0.08074895 -0.011797128 0.011568744 0.09549331 0.047586452 -0.07734283 -0.04231355 -0.021517446 -0.046503287 -0.019541705 -0.05417051 -0.002868532 0.023457019 -0.08241099 0.14890976 -0.08386397 0.05916353 -0.08228589 -0.08431074 -0.0016002207 -0.14362976 0.021149708 0.050014626 -0.016933601 0.06801293
29 0.032509964 -0.22328486 -0.05145991 0.031352744 -0.05309034 0.0011636667 0.18520601 -0.018406948 0.023007287 0.049039174 -0.15773241 0.23285232 0.0005255125 -0.19763978 -0.031599797 -0.18663254 -0.1613632 -0.09806491 -0.090201676 0.07882348 0.19030637 0.0101041505 0.14845486 0.02002315 -0.03553841 0.042455964 -0.047317114 -0.021166442 -0.09418476 0.07553854 -0.10556474 0.08298827 -0.048654024 -0.020929523 -0.10852851 -0.08373847 0.25478286 0.038249575 -0.045013092 -0.1863982 -0.27726853 0.10151541 0.100831345 0.18762659 -0.011838553 0.15365393 0.07535543 -0.110020615 -0.099738136 -0.011386338 -0.09148527 0.17485107 0.044943046 -0.0016236361 -0.05755043 -0.0719121 -0.1989796 -0.03618049 -0.039746724 -0.08585658 0.18015891 -0.22006387 -0.032648627 0.1439819 0.07905186 -0.19650273 -0.041755084 0.025821624 -0.05863052 -0.18070911 0.015251776 0.038379617 0.08633516 -0.07840532 0.08983225 -0.044323474 0.18145819 0.070873484 -0.09111344 0.09655653 -0.050618045 -0.21210928 -0.055657495 -0.24058646 -0.16910087 0.2780408 -0.041822027 0.025696283 -0.094072394 -0.055227585 0.1791259 0.067470685 0.16954495 0.042159077 -0.12399857 0.17608623 -0.07516607 -0.046320528 -0.0006454563 -0.07411102 -0.11212509 -0.031395413 -0.19744378 -0.15878756 -0.025450656 0.012467226 0.15886003 0.077514514 -0.15032977 -0.062284347 -0.039159056 -0.094618954 -0.054226957 -0.11728256 0.023013707 0.05009117 -0.16180688 0.28062582 -0.15704128 0.14002827 -0.15935601 -0.15816566 -0.015842086 -0.25602508 0.070740536 0.102327555 -0.025962532 0.10934117
22 0.019939287 -0.22020172 -0.039284017 0.0009937943 -0.032417238 -0.031912398 0.13390654 0.021307433 0.036459405 0.039223727 -0.13409707 0.20715353 0.018963171 -0.18953207 0.01104799 -0.18698834 -0.12842143 -0.0991621 -0.046027668 0.050853193 0.1801942 0.029987613 0.13303319 0.0233639 -0.023150105 0.053308584 -0.040961962 -0.006336739 -0.052207816 0.078437515 -0.07921083 0.07137321 -0.07545116 -0.0018489325 -0.07017678 -0.11032707 0.22059827 0.03644171 -0.04319899 -0.13629995 -0.21920782 0.044740338 0.09288279 0.20142472 -0.052562226 0.14287683 0.054698348 -0.07421587 -0.053047244 -0.0050774342 -0.11983378 0.13146105 0.02987319 0.058463152 -0.07373036 -0.08401222 -0.14701821 -0.012018772 -0.047005992 -0.09378052 0.15912879 -0.18241629 -0.019161642 0.13878876 0.025449866 -0.12215119 -0.040262103 0.03466726 -0.027796572 -0.17724976 -0.041592438 0.05873174 0.05282229 -0.08710924 0.13095656 -0.02171628 0.13725242 0.058468297 -0.07609251 0.024620393 -0.0663838 -0.17107141 -0.045620345 -0.18542187 -0.17541711 0.19590603 0.026449513 0.0065127467 -0.049099993 -0.024584725 0.17267221 0.022956751 0.15088333 -0.00648381 -0.1412996 0.121548854 -0.059835214 -0.09405185 0.013398576 -0.035890233 -0.112704925 -0.022922 -0.17579173 -0.109772235 -0.03317458 0.022015668 0.14720969 0.07461465 -0.13532598 -0.08711523 -0.02539505 -0.052551843 -0.017458698 -0.05206304 -0.029229322 0.031698823 -0.13975206 0.24040689 -0.14210477 0.07714442 -0.12527888 -0.14477265 0.02552613 -0.23390235 0.008492263 0.052564874 -0.0013011551 0.1258958
18 0.018301329 -0.20850775 -0.04087062 0.0011606772 -0.028860906 -0.029540755 0.12610109 0.023123091 0.040135708 0.042674974 -0.12686935 0.200101 0.019171001 -0.17823362 0.009110827 -0.1809146 -0.12238163 -0.09158532 -0.0512618 0.050558574 0.1744477 0.027156647 0.12804982 0.021416496 -0.015880616 0.05091974 -0.037098356 -0.0027991226 -0.04985032 0.07318061 -0.07625505 0.072479516 -0.06591422 0.0009920701 -0.06498762 -0.10372536 0.21168627 0.036351167 -0.037476443 -0.12384295 -0.2134258 0.05113843 0.08753166 0.1868729 -0.052669674 0.13638459 0.051716086 -0.073538385 -0.052465152 -0.005806099 -0.11232007 0.12432663 0.037329845 0.058424134 -0.074753635 -0.0765667 -0.14221314 -0.019197794 -0.049256627 -0.08790828 0.15310161 -0.18085948 -0.019753285 0.12902103 0.029312262 -0.11766427 -0.034552556 0.027729817 -0.026676735 -0.16812083 -0.040218044 0.052380115 0.054243263 -0.08631388 0.124018736 -0.019526163 0.137911 0.056216408 -0.074236475 0.024642779 -0.064667314 -0.16098137 -0.044197552 -0.17714648 -0.17024973 0.19258104 0.025465604 0.009120635 -0.052175704 -0.021285955 0.16388237 0.020421267 0.14717782 -0.005209695 -0.13736182 0.116788104 -0.059299253 -0.0873247 0.011468833 -0.033876855 -0.10656016 -0.020390734 -0.17013147 -0.10676533 -0.03213891 0.017779995 0.13857329 0.06457142 -0.13023992 -0.086463325 -0.030704679 -0.053818617 -0.0223269 -0.05601169 -0.02574011 0.028588118 -0.13030876 0.22611293 -0.12956423 0.072696336 -0.12183339 -0.13997145 0.022151371 -0.22269878 0.010557792 0.045869935 -0.007694746 0.116033256
17 0.010900355 -0.11978677 -0.025058387 0.008866985 -0.02485253 -0.014014851 0.08314227 0.009469848 0.02804835 0.024427423 -0.07168274 0.11845393 0.007843677 -0.09609547 -0.0021609664 -0.09540743 -0.072584696 -0.059215754 -0.03771157 0.03250808 0.09718618 0.008136175 0.07578965 0.010694705 -0.0072971443 0.024232645 -0.02632253 -0.007397296 -0.03475074 0.041600745 -0.04495157 0.041012116 -0.030573022 -0.009075595 -0.044220727 -0.058493 0.12540169 0.024627786 -0.026434867 -0.076667994 -0.1281806 0.029853033 0.050309088 0.10597623 -0.028125165 0.07446973 0.03850264 -0.040983133 -0.035165988 -0.0010401359 -0.060963463 0.07908633 0.020259669 0.015913626 -0.03266227 -0.047752626 -0.090782516 -0.008498539 -0.019610656 -0.05263873 0.08891457 -0.10442217 -0.008186969 0.07440205 0.021200938 -0.07270499 -0.021372037 0.017681794 -0.01937541 -0.09683155 -0.015638556 0.026618486 0.033706352 -0.04997221 0.0662682 -0.0135235395 0.0755909 0.028395496 -0.04534006 0.017632602 -0.030915152 -0.09354148 -0.022172356 -0.100813895 -0.09887319 0.1127427 0.008819637 0.0073446557 -0.029784456 -0.01694547 0.08961901 0.018331308 0.085110605 0.012047877 -0.073596805 0.06986246 -0.02593768 -0.044460006 0.008354553 -0.01847076 -0.05578912 -0.013135403 -0.10118508 -0.066172935 -0.017407874 0.007092739 0.08136697 0.03490548 -0.07568006 -0.039444085 -0.016367204 -0.03166456 -0.011258974 -0.037784915 -0.006590159 0.020086268 -0.07589616 0.1389758 -0.075942524 0.04463223 -0.06753848 -0.07228033 0.012023044 -0.12471001 0.0046152496 0.03177537 -0.0069153775 0.070169955
27 0.03801698 -0.23799165 -0.05775166 0.033398174 -0.060174875 0.014004739 0.2054062 -0.016424552 0.019188175 0.051863167 -0.17561334 0.24196973 -0.0019253381 -0.20226146 -0.04138121 -0.19174525 -0.16572484 -0.10149361 -0.10832087 0.08205158 0.2021148 0.01472141 0.16577676 0.028942455 -0.036044404 0.04051437 -0.059977643 -0.019220596 -0.114582196 0.07609359 -0.11770792 0.08804128 -0.051195238 -0.030860309 -0.11296566 -0.09115614 0.26449487 0.03852307 -0.054917496 -0.20049547 -0.3136632 0.11283786 0.11123971 0.20051216 -0.008115467 0.16011058 0.09254814 -0.11754867 -0.10992911 -0.01163296 -0.08145264 0.19594188 0.045226444 -0.008640929 -0.04989435 -0.08697264 -0.22746424 -0.043131776 -0.036734585 -0.09009286 0.1868442 -0.22558239 -0.035225343 0.15420443 0.09923108 -0.2147098 -0.04022156 0.033738013 -0.06926879 -0.19568111 0.0279156 0.042668123 0.10469346 -0.09106386 0.08216647 -0.061080705 0.19673148 0.071099855 -0.103341416 0.114613876 -0.046778664 -0.23041436 -0.059908938 -0.25522134 -0.18574692 0.30408177 -0.054401826 0.034182727 -0.11183034 -0.056591764 0.18252875 0.08126909 0.18421927 0.05475537 -0.13845116 0.18920727 -0.07239445 -0.046042375 0.0028715036 -0.08370602 -0.11839741 -0.038751543 -0.2047804 -0.180728 -0.022010025 0.015810162 0.17569499 0.07925715 -0.166631 -0.059408337 -0.041832276 -0.107435666 -0.059664667 -0.13285115 0.043423723 0.06055932 -0.17303917 0.31181958 -0.17393716 0.15927789 -0.1730135 -0.16522095 -0.017788824 -0.2736363 0.07670686 0.11423548 -0.029524041 0.11835514
21 0.03900666 -0.24329458 -0.06105891 0.042663902 -0.074512236 0.019195333 0.22295944 -0.030668126 0.020982897 0.059801415 -0.19026926 0.26198956 -0.002430734 -0.22126372 -0.05042884 -0.19828646 -0.18614163 -0.1007502 -0.121164516 0.09647463 0.21318018 0.0077823238 0.17739816 0.025470164 -0.03872794 0.04451873 -0.05437158 -0.027427439 -0.12839533 0.074773476 -0.12700562 0.09635242 -0.048781928 -0.032134507 -0.1286457 -0.08619479 0.28328073 0.042278044 -0.054781985 -0.2177027 -0.3413491 0.13542156 0.11838723 0.20629951 -0.0028145355 0.1662608 0.099625625 -0.12882215 -0.11822141 -0.017093556 -0.080792435 0.21329214 0.057699293 -0.028466225 -0.046180494 -0.08281138 -0.24901696 -0.054524086 -0.04265736 -0.093468875 0.20227309 -0.24733812 -0.035237856 0.1644177 0.11993365 -0.24028027 -0.041097138 0.02726453 -0.079392746 -0.20825261 0.049026016 0.03307596 0.11816444 -0.08735054 0.084047094 -0.06336223 0.21080108 0.078229256 -0.106210575 0.1385978 -0.044380233 -0.25024396 -0.06773438 -0.28811854 -0.19183439 0.33211684 -0.079114005 0.03975117 -0.11824455 -0.06655106 0.20053628 0.0994896 0.19271208 0.06913123 -0.13976334 0.20803395 -0.08099968 -0.034129605 -0.0038241365 -0.09137777 -0.118813485 -0.045805495 -0.2214714 -0.19281575 -0.023298262 0.013087339 0.18039034 0.085403875 -0.17767711 -0.06191282 -0.045836855 -0.116718665 -0.07094721 -0.14867789 0.053526536 0.07300559 -0.19033085 0.33501086 -0.18650723 0.18841584 -0.18653847 -0.1781567 -0.026799826 -0.29122853 0.100563064 0.12802407 -0.031077284 0.11865501
23 0.043701697 -0.23839648 -0.064832374 0.048807267 -0.070527844 0.025685787 0.22131889 -0.027165713 0.020920329 0.05302055 -0.18922831 0.25731733 -0.0035930274 -0.21589562 -0.05475556 -0.19068016 -0.18351464 -0.09551926 -0.12170892 0.10094611 0.2060738 0.0050212885 0.1715798 0.026279412 -0.03849712 0.04179896 -0.060527872 -0.031676583 -0.13313864 0.07616268 -0.12884934 0.09707253 -0.046078164 -0.034570556 -0.1306192 -0.08325857 0.2805257 0.03578454 -0.05912048 -0.21585448 -0.3347594 0.13277124 0.12068105 0.20442618 0.005510151 0.16130286 0.0953343 -0.12614417 -0.12406546 -0.016668862 -0.07809693 0.20836443 0.05798771 -0.033114772 -0.04368262 -0.086640224 -0.24966078 -0.05231319 -0.036957268 -0.0978455 0.2016538 -0.24577072 -0.032203976 0.15942398 0.120475546 -0.23849021 -0.037059575 0.032181464 -0.0751928 -0.19691546 0.049027402 0.03528802 0.12129966 -0.08631756 0.07230917 -0.06402248 0.21300405 0.08158969 -0.10304736 0.13792346 -0.03726602 -0.25002354 -0.061399225 -0.28048107 -0.18603516 0.3349951 -0.08166832 0.043054663 -0.12502511 -0.066451944 0.19421202 0.100578114 0.18893741 0.06665442 -0.14014256 0.20629627 -0.07702945 -0.034109417 -0.0061502424 -0.087810956 -0.1148497 -0.0445987 -0.2132432 -0.1993141 -0.026879532 0.0053125666 0.1754146 0.08454543 -0.17078188 -0.055423252 -0.054424264 -0.12382658 -0.07216688 -0.15507454 0.05696522 0.06927732 -0.1855825 0.33157387 -0.18331814 0.18408346 -0.18172257 -0.17126012 -0.031188903 -0.28438872 0.10096481 0.12355934 -0.035399787 0.11716812
15 0.038129237 -0.25570825 -0.05859873 0.043605726 -0.06977267 0.025343131 0.22930425 -0.03204078 0.021108245 0.055457182 -0.19304216 0.26593328 -0.003048746 -0.220607 -0.04950175 -0.20347273 -0.19159679 -0.1041999 -0.12760767 0.09415514 0.21846883 0.0112686185 0.1822315 0.024211038 -0.043945804 0.047231253 -0.059594054 -0.028184017 -0.1312338 0.07442855 -0.13407007 0.10207513 -0.046513114 -0.03459155 -0.12635721 -0.08558718 0.28728646 0.04025263 -0.05415259 -0.21902107 -0.34795815 0.13301417 0.12365753 0.21482502 0.0036506488 0.1722536 0.09608687 -0.13372126 -0.12465973 -0.018661939 -0.08728427 0.21464005 0.054932605 -0.023092013 -0.04984548 -0.09157381 -0.26004168 -0.055741105 -0.03779391 -0.095663175 0.21223044 -0.24805956 -0.035224468 0.16119236 0.1193463 -0.23896837 -0.039165612 0.029992897 -0.07287634 -0.20387228 0.047698125 0.03767155 0.12062074 -0.093909726 0.07984787 -0.065885246 0.21901585 0.08529403 -0.11489066 0.13404466 -0.043637194 -0.25273234 -0.06681534 -0.29207686 -0.1970464 0.3375923 -0.078995034 0.038210973 -0.12532257 -0.06097138 0.20311767 0.101124965 0.20238632 0.06263766 -0.14661485 0.21611696 -0.07842086 -0.032047868 -0.002925593 -0.08839929 -0.117215306 -0.04496664 -0.22897026 -0.19792664 -0.02602153 0.007294542 0.18743013 0.09190367 -0.18091367 -0.06673255 -0.05054142 -0.12432451 -0.072757155 -0.15611427 0.053540867 0.07341571 -0.18790826 0.34603366 -0.1954927 0.1924656 -0.18599845 -0.18437345 -0.022281203 -0.2880597 0.093377724 0.12860966 -0.03233158 0.12707345
16 0.043729324 -0.24417152 -0.060323942 0.047666408 -0.07264707 0.018861452 0.22484396 -0.029774928 0.021941803 0.05671764 -0.19119823 0.26253998 -0.004623819 -0.21484348 -0.045735255 -0.20131871 -0.19044428 -0.10418154 -0.12533072 0.09308338 0.20924471 0.007240371 0.17942254 0.020629251 -0.03689793 0.046129923 -0.052526847 -0.029359309 -0.12905246 0.071469955 -0.13209802 0.09867041 -0.049865846 -0.03746448 -0.124479696 -0.079930164 0.28639126 0.035214312 -0.058300164 -0.22294134 -0.33613348 0.1349143 0.12300297 0.20742023 0.0029092554 0.16403134 0.09863566 -0.12779348 -0.122697644 -0.011779077 -0.08304099 0.21078734 0.05680537 -0.024440803 -0.04364087 -0.081263326 -0.24659865 -0.050497305 -0.037682004 -0.099931136 0.20693967 -0.25193435 -0.036464203 0.15590687 0.116747074 -0.23940802 -0.041335624 0.032619387 -0.07870263 -0.20673318 0.048444994 0.031359393 0.11703756 -0.08972853 0.08557805 -0.06432057 0.21549824 0.07932352 -0.10879635 0.1359045 -0.03945626 -0.25204852 -0.066873655 -0.2841877 -0.18584453 0.33492598 -0.0759372 0.044282135 -0.118758544 -0.06309695 0.19468401 0.0975348 0.19020517 0.066150896 -0.1371316 0.21106927 -0.076063186 -0.039242577 -0.0073945103 -0.09413841 -0.11185929 -0.041310288 -0.21576336 -0.19768922 -0.030825425 0.005616995 0.17709108 0.088614576 -0.1715637 -0.058699194 -0.051867783 -0.11540841 -0.07390253 -0.1484207 0.054989606 0.070928894 -0.18665424 0.33400863 -0.18618228 0.1809476 -0.18624614 -0.17327678 -0.02863446 -0.28779173 0.10092517 0.1291769 -0.032305814 0.12405021
19 0.0473196 -0.2468542 -0.05723264 0.046443332 -0.07333424 0.023466257 0.22258785 -0.03341186 0.021780267 0.056595784 -0.19368938 0.26296934 -0.005616629 -0.21466164 -0.053383715 -0.1952054 -0.1903439 -0.10209319 -0.12147277 0.10101206 0.2102898 0.0018882623 0.17758761 0.024146568 -0.0392104 0.048252255 -0.055599235 -0.027790513 -0.13215657 0.07235744 -0.12963316 0.098565824 -0.045196272 -0.038613148 -0.1273812 -0.07951711 0.27659336 0.041344255 -0.05332042 -0.21789595 -0.3366581 0.13376503 0.120655484 0.2030585 0.0073914495 0.16562448 0.10117181 -0.13476226 -0.12379083 -0.0143921785 -0.08440275 0.2106316 0.0527109 -0.033167318 -0.038823437 -0.07965648 -0.25391623 -0.050010845 -0.032752655 -0.09641239 0.2032463 -0.24999112 -0.03139592 0.16121604 0.1183806 -0.24466494 -0.036738485 0.027670087 -0.08059829 -0.20435683 0.050307352 0.03477228 0.11880623 -0.085605755 0.07482273 -0.0682981 0.2177078 0.08440781 -0.110617645 0.13552105 -0.041832794 -0.2505266 -0.06689081 -0.28782687 -0.18825118 0.33547822 -0.07780548 0.04402747 -0.12699892 -0.06654968 0.19502574 0.10240115 0.19781746 0.06976735 -0.13892555 0.21419962 -0.07999905 -0.031910554 -0.004668331 -0.09455883 -0.11279842 -0.041774634 -0.22288029 -0.20029409 -0.028415915 0.008737432 0.17862864 0.08875631 -0.1759049 -0.059894294 -0.054387547 -0.1218245 -0.071895696 -0.15716177 0.06238349 0.07262095 -0.18179865 0.33627585 -0.19122213 0.19096294 -0.18727891 -0.17574522 -0.030810272 -0.28768706 0.09670641 0.12950322 -0.038939938 0.115372784
13 0.020932887 -0.21259508 -0.03565094 -0.002286039 -0.032774333 -0.033281066 0.13058296 0.022444222 0.03981988 0.0418752 -0.12877965 0.19643778 0.019529616 -0.18700159 0.013374444 -0.18339218 -0.12597202 -0.09625277 -0.046349175 0.04090774 0.17590252 0.027858416 0.11980226 0.021037929 -0.022240082 0.049894515 -0.031134281 0.001773056 -0.0459572 0.0738003 -0.079453744 0.07182558 -0.07284347 -0.0007045413 -0.06597332 -0.10692081 0.21910444 0.040283214 -0.037652675 -0.12957193 -0.20784895 0.043732993 0.09275095 0.19493906 -0.055990107 0.1386637 0.05564091 -0.07412959 -0.053085335 -0.00022305593 -0.12258064 0.12908341 0.03687894 0.06410551 -0.081733786 -0.08325731 -0.14418508 -0.016762668 -0.046558604 -0.09086199 0.15623003 -0.17774627 -0.023013355 0.12699841 0.02456308 -0.11923575 -0.039117545 0.028371634 -0.027656546 -0.18012138 -0.04608106 0.051962703 0.049831513 -0.08556716 0.12836139 -0.02293895 0.13428198 0.05198515 -0.077914424 0.016676873 -0.06335797 -0.16828851 -0.050370812 -0.1759783 -0.17221645 0.18834533 0.03063934 0.00683391 -0.049496476 -0.019105267 0.17318551 0.018600538 0.14170258 -0.010461626 -0.13621497 0.111065194 -0.058495305 -0.103030555 0.0063436306 -0.028230365 -0.10417311 -0.024516046 -0.17387253 -0.10703836 -0.03582874 0.012884728 0.14603852 0.068762906 -0.13040878 -0.09152663 -0.024339138 -0.048255228 -0.017435212 -0.04697593 -0.036587786 0.026627915 -0.13401668 0.23326907 -0.13378161 0.06746481 -0.121596284 -0.13369647 0.030472642 -0.22296071 0.002903068 0.050757535 0.001252456 0.12472212
10 0.035099283 -0.2190835 -0.052313402 0.034623545 -0.052464966 0.010108459 0.1886691 -0.01585041 0.022935055 0.043894444 -0.15663785 0.22885354 -0.0010465218 -0.19076532 -0.036775615 -0.17664388 -0.1528644 -0.08953382 -0.096974 0.08169598 0.18802832 0.011674105 0.15174426 0.025529455 -0.0350301 0.040993135 -0.04851931 -0.021294137 -0.10006503 0.07035214 -0.11142432 0.0787099 -0.0472266 -0.017919067 -0.11149805 -0.084441274 0.25243896 0.032240205 -0.049942937 -0.18552257 -0.28398666 0.098307975 0.10695549 0.19213335 -0.008523757 0.15156247 0.08147946 -0.110709324 -0.095501244 -0.015221754 -0.082667515 0.17617759 0.049519245 -0.0065882667 -0.05373751 -0.073651955 -0.20206289 -0.04215628 -0.044637207 -0.083842196 0.17752525 -0.21461725 -0.035524327 0.1445399 0.08635067 -0.1935127 -0.03927536 0.024072167 -0.06574604 -0.18552266 0.024884151 0.034223475 0.0967692 -0.081045955 0.08805763 -0.048069797 0.17800099 0.067233264 -0.095010616 0.10009291 -0.049374025 -0.21714261 -0.05698302 -0.23310404 -0.17054515 0.28061196 -0.05118342 0.026740052 -0.095505126 -0.055775106 0.17758667 0.074145064 0.17263347 0.0475197 -0.12624834 0.17513919 -0.073274 -0.049503874 0.000780343 -0.07050548 -0.10935032 -0.037511233 -0.19287424 -0.15993346 -0.026235495 0.011973774 0.16539468 0.08222936 -0.15478998 -0.057391554 -0.037939887 -0.10235014 -0.04873048 -0.1180955 0.03318588 0.05585685 -0.15829387 0.28693336 -0.15924081 0.13819456 -0.15846275 -0.15928617 -0.016716478 -0.25194958 0.075392544 0.10026221 -0.027510654 0.110736236
12 0.01509445 -0.21070015 -0.039722897 0.0028662283 -0.03588161 -0.026814602 0.12873402 0.015566187 0.036771033 0.041234095 -0.12260693 0.20193528 0.013796732 -0.17411828 0.0065725767 -0.17296694 -0.1271997 -0.091196395 -0.04959337 0.044330843 0.17104545 0.027403207 0.12678333 0.018092634 -0.0217445 0.042866215 -0.035761587 -0.004726483 -0.055314776 0.06897117 -0.07477871 0.07170647 -0.068766065 -0.004060319 -0.06731719 -0.09420558 0.20914197 0.039219882 -0.039892215 -0.12870224 -0.2143227 0.052602053 0.094377585 0.18290295 -0.050492417 0.13618666 0.059377294 -0.07626605 -0.057535682 -0.0056934003 -0.11134016 0.13314864 0.034072746 0.044870056 -0.0729036 -0.08184025 -0.14408542 -0.01682703 -0.044179004 -0.083668016 0.15478483 -0.17584768 -0.021164844 0.13059671 0.025932217 -0.121341795 -0.03342581 0.02975389 -0.02953123 -0.16719183 -0.027510868 0.052371588 0.0557502 -0.079718955 0.1178691 -0.02421855 0.13982517 0.05808929 -0.075399965 0.033586852 -0.05990224 -0.16193342 -0.050726946 -0.17827679 -0.16783556 0.19485837 0.016400177 0.010281755 -0.05452341 -0.028518494 0.16251114 0.02966174 0.14372942 0.0011425593 -0.12902124 0.11547875 -0.052475076 -0.091787495 0.010482981 -0.032575555 -0.10706781 -0.026683247 -0.16892965 -0.11051239 -0.032985013 0.011037538 0.1399735 0.06820316 -0.12461639 -0.08454503 -0.03297843 -0.052372113 -0.022637125 -0.05722031 -0.020653121 0.035767365 -0.13115732 0.23270388 -0.13815722 0.07493257 -0.12364424 -0.13550407 0.023124177 -0.21852253 0.009448504 0.052930918 -0.009389514 0.11670499
